{
  "slope_all": [
    -1.7515270075960223,
    0.4123426071147792
  ],
  "slope_good": [
    -1.7067115900238863,
    0.424509214675923
  ],
  "amplitude": [
    0.7859697330458333,
    0.19549371791027792
  ],
  "spearman": [
    -0.11210168886631153,
    1.881435204632758e-05
  ],
  "permutation": {
    "n_perm": 10000,
    "p_one_sided": 0.0001,
    "null_sigma": 0.488739635532678,
    "z_equiv": 3.6503419172206177
  },
  "block_bootstrap": {
    "block_deg": 0.5,
    "n_blocks": 173,
    "slope_err": 0.438237413438526
  },
  "kappa_vs_hostmass": {
    "n": 1450,
    "spearman_rho": -0.0014313880726782254,
    "p": 0.956569747752212
  },
  "slope_with_masstep": {
    "slope": -1.7054778621522584,
    "err": 0.4192759536291863,
    "mass_step_mag": -0.0007831749893561265
  },
  "groups": {
    "X": [
      -1.567693952098144,
      0.7247220102149694,
      475
    ],
    "S": [
      2.2749350338187386,
      1.4863685307849832,
      224
    ],
    "C": [
      -2.3704819434304034,
      0.609504141815924,
      506
    ],
    "E": [
      -1.874505621898868,
      1.2327636977823655,
      245
    ],
    "X+S": [
      -0.8408095772445436,
      0.7596497002476357,
      699
    ],
    "C+E": [
      -2.2222773325594787,
      0.5406319485134308,
      751
    ]
  },
  "jackknife_range": [
    -2.0009245154402278,
    -1.1806607611348197
  ],
  "robustness": {
    "z_lt_1": [
      -1.64453994346588,
      0.4471690069458606,
      1438
    ],
    "delensed_weights": [
      -1.7656554390546662,
      0.42550417038095156,
      1450
    ],
    "area_clean": [
      -1.6479863123450842,
      0.42743868498490006,
      1417
    ],
    "variant_excise": [
      -1.788322538336616,
      0.4477972890398933,
      1450
    ],
    "variant_nospecz": [
      -0.6551919103789265,
      0.7178344274118683,
      699
    ],
    "headline_XS_for_nospecz": [
      -0.8408095772445436,
      0.7677912845356241,
      699
    ],
    "variant_w1only": [
      -1.6498256143182988,
      0.4655909393695038,
      1450
    ],
    "variant_naive": [
      -1.2540643638154287,
      0.34091908904851387,
      1450
    ],
    "variant_cap14.1": [
      -1.6788989830625878,
      0.41975126118395045,
      1450
    ],
    "variant_mstar05": [
      -1.6529279577479774,
      0.4245193786383878,
      1450
    ]
  },
  "himean": [
    -0.016783379531738387,
    0.0111083344239806,
    211
  ],
  "lomean": [
    0.0027680413301424795,
    0.004397888988402791,
    1239
  ],
  "hilo_sig": 1.6364802578006101,
  "sigma_kappa": 0.010148454249197952,
  "n_all": 1572,
  "n_good": 1450
}