{
  "slope_all": [
    -1.7515510348502998,
    0.4123462160367932
  ],
  "slope_good": [
    -1.7067359778631606,
    0.42451182237325524
  ],
  "amplitude": [
    0.7859809640608659,
    0.19549491879927877
  ],
  "spearman": [
    -0.11208571575605467,
    1.8866267574959062e-05
  ],
  "permutation": {
    "n_perm": 100000,
    "p_one_sided": 6e-05,
    "null_sigma": 0.4892219928241251,
    "z_equiv": 3.6618454490512904
  },
  "block_bootstrap": {
    "block_deg": 0.5,
    "n_blocks": 173,
    "slope_err": 0.4381977732962114
  },
  "kappa_vs_hostmass": {
    "n": 1450,
    "spearman_rho": -0.0014412679466559862,
    "p": 0.9562702779891766
  },
  "slope_with_masstep": {
    "slope": -1.7055021930741212,
    "err": 0.4377071923144276,
    "mass_step_mag": -0.0007832813913661058
  },
  "groups": {
    "X": [
      -1.5676950966809104,
      0.7303965098112366,
      475
    ],
    "S": [
      2.2749341796382603,
      1.5184875511195286,
      224
    ],
    "C": [
      -2.370546210878884,
      0.6015869628572924,
      506
    ],
    "E": [
      -1.8745064297255993,
      1.2345412792182386,
      245
    ],
    "X+S": [
      -0.8408093151731124,
      0.7532085096351793,
      699
    ],
    "C+E": [
      -2.2223228453992183,
      0.5316465101336124,
      751
    ]
  },
  "jackknife_range": [
    -2.000955707631862,
    -1.1806609641070398
  ],
  "robustness": {
    "z_lt_1": [
      -1.6445533040088343,
      0.45538646779378966,
      1438
    ],
    "delensed_weights": [
      -1.7656800252600326,
      0.43616187846043053,
      1450
    ],
    "area_clean": [
      -1.6480075154068996,
      0.4335021138011881,
      1417
    ],
    "no_cluster_at_sn_plane": [
      -1.1641025897248074,
      0.49129608130997876,
      1273
    ],
    "variant_excise": [
      -1.931281696272916,
      0.4618850615288933,
      1450
    ],
    "variant_nospecz": [
      -0.6551953851934558,
      0.7137944357937047,
      699
    ],
    "headline_XS_for_nospecz": [
      -0.8408093151731124,
      0.733385184725032,
      699
    ],
    "variant_w1only": [
      -1.6498405165542414,
      0.45595530748640734,
      1450
    ],
    "variant_naive": [
      -1.254072144771931,
      0.34132350674691153,
      1450
    ],
    "variant_cap14.1": [
      -1.6789126567327168,
      0.4135676762525343,
      1450
    ],
    "variant_mstar05": [
      -1.6529425815615182,
      0.41992445489757224,
      1450
    ]
  },
  "himean": [
    -0.016783379531738387,
    0.0111083344239806,
    211
  ],
  "lomean": [
    0.0027680413301424795,
    0.004397888988402791,
    1239
  ],
  "hilo_sig": 1.6364802578006101,
  "sigma_kappa": 0.01014842748983255,
  "n_all": 1572,
  "n_good": 1450
}