{
  "slope_all": [
    -2.040553233819209,
    0.47615086837788007
  ],
  "slope_good": [
    -1.9969044870083938,
    0.4936558307767014
  ],
  "amplitude": [
    0.91960850078369,
    0.2273369114032048
  ],
  "spearman": [
    -0.10510813138298063,
    6.070364724777596e-05
  ],
  "permutation": {
    "n_perm": 10000,
    "p_one_sided": 0.0001,
    "null_sigma": 0.553035639866525,
    "z_equiv": 3.771795525874486
  },
  "block_bootstrap": {
    "block_deg": 0.5,
    "n_blocks": 173,
    "slope_err": 0.5244824480413528
  },
  "kappa_vs_hostmass": {
    "n": 1450,
    "spearman_rho": 0.007702270044915812,
    "p": 0.7694876699994335
  },
  "slope_with_masstep": {
    "slope": -1.9957213552039337,
    "err": 0.4903055137807141,
    "mass_step_mag": -0.0005997631226792758
  },
  "groups": {
    "X": [
      -1.6920660106591239,
      1.0246696044331678,
      475
    ],
    "S": [
      2.728430459672075,
      1.7144939632264913,
      224
    ],
    "C": [
      -2.634815953696153,
      0.635985864632822,
      506
    ],
    "E": [
      -2.6066454378867827,
      1.4906274946446383,
      245
    ],
    "X+S": [
      -0.6570522711150864,
      1.014380266149461,
      699
    ],
    "C+E": [
      -2.6236646404626787,
      0.56736556204764,
      751
    ]
  },
  "jackknife_range": [
    -2.361301708294742,
    -1.3968853393062037
  ],
  "robustness": {
    "z_lt_1": [
      -1.9258754302103882,
      0.5295710349432364,
      1438
    ],
    "delensed_weights": [
      -2.0586969881338817,
      0.4928706387723312,
      1450
    ],
    "area_clean": [
      -1.9288567927185465,
      0.5004629970795428,
      1417
    ],
    "variant_excise": [
      -2.046715187741068,
      0.5200676636866655,
      1450
    ],
    "variant_nospecz": [
      -0.5096603807438508,
      0.9962489616933629,
      699
    ],
    "headline_XS_for_nospecz": [
      -0.6570522711150864,
      1.0266486155557963,
      699
    ],
    "variant_w1only": [
      -1.9189753551472246,
      0.5191237833700015,
      1450
    ],
    "variant_naive": [
      -1.8903934843533692,
      0.46312014641081134,
      1450
    ],
    "variant_cap14.1": [
      -1.9964615593766115,
      0.5041312044306516,
      1450
    ],
    "variant_mstar05": [
      -1.9990506371131678,
      0.49928596582667034,
      1450
    ]
  },
  "himean": [
    -0.025783574423154293,
    0.012259388704590231,
    168
  ],
  "lomean": [
    0.003361195261540414,
    0.004337472184809317,
    1282
  ],
  "hilo_sig": 2.2412007768236637,
  "sigma_kappa": 0.009045593175848535,
  "n_all": 1572,
  "n_good": 1450
}